digraph Tree {
node [shape=box, style="filled", color="black"] ;
graph [ranksep=equally, splines=polyline] ;
0 [label="DIST_TO_STREAM <= 777.775\ngini = 0.383\nsamples = 155\nvalue = [40, 115]\nclass = no landslide", fillcolor="#399de5a6"] ;
1 [label="SLOPE <= 16.58\ngini = 0.025\nsamples = 80\nvalue = [1, 79]\nclass = no landslide", fillcolor="#399de5fc"] ;
0 -> 1 [labeldistance=2.5, labelangle=45, headlabel="True"] ;
2 [label="SLOPE <= 15.711\ngini = 0.278\nsamples = 6\nvalue = [1, 5]\nclass = no landslide", fillcolor="#399de5cc"] ;
1 -> 2 ;
3 [label="gini = 0.0\nsamples = 5\nvalue = [0, 5]\nclass = no landslide", fillcolor="#399de5ff"] ;
2 -> 3 ;
4 [label="gini = 0.0\nsamples = 1\nvalue = [1, 0]\nclass = landslide", fillcolor="#e58139ff"] ;
2 -> 4 ;
5 [label="gini = 0.0\nsamples = 74\nvalue = [0, 74]\nclass = no landslide", fillcolor="#399de5ff"] ;
1 -> 5 ;
6 [label="ELEVATION <= 1073.0\ngini = 0.499\nsamples = 75\nvalue = [39, 36]\nclass = landslide", fillcolor="#e5813914"] ;
0 -> 6 [labeldistance=2.5, labelangle=-45, headlabel="False"] ;
7 [label="gini = 0.0\nsamples = 11\nvalue = [0, 11]\nclass = no landslide", fillcolor="#399de5ff"] ;
6 -> 7 ;
8 [label="SLOPE <= 19.049\ngini = 0.476\nsamples = 64\nvalue = [39, 25]\nclass = landslide", fillcolor="#e581395c"] ;
6 -> 8 ;
9 [label="gini = 0.298\nsamples = 22\nvalue = [18, 4]\nclass = landslide", fillcolor="#e58139c6"] ;
8 -> 9 ;
10 [label="gini = 0.5\nsamples = 42\nvalue = [21, 21]\nclass = landslide", fillcolor="#e5813900"] ;
8 -> 10 ;
{rank=same ; 0} ;
{rank=same ; 1; 6} ;
{rank=same ; 2; 8} ;
{rank=same ; 3; 4; 5; 7; 9; 10} ;
}